1.797068071477935514e-01,7.812607154873987825e-02,4.861675195010344286e-01,-3.589460545620381388e-02,1.917482334093622565e-01,5.519583132992010865e-01,-1.732311921647428921e-01,4.753188119222282459e-01,-2.474581547941628878e-01,-3.461707503636333172e-01,4.489585138333455072e-01,-1.603597356292639151e-02,-1.586945946491964132e-01,-3.122328691781107723e-01,6.503033913581117952e-04
-5.572245135910718766e-02,9.299096668641326086e-03,-4.363780957693242368e-01,3.904124911472439119e-01,1.341764757752755832e-01,-3.062120533559258839e-01,-5.539904791352494584e-01,6.183516768241988926e-01,-5.649992961792466711e-02,5.055531966876942729e-01,2.951116117623469037e-01,6.851776206968278604e-01,-2.960065857749684670e-01,2.176249664556210717e-01,5.611404596526461397e-01
-9.384548735079165649e-01,-7.115029025983178324e-01,-8.592447928247889388e-01,4.257248024282893062e-01,-2.889980209273129153e-01,4.081952609155614642e-01,-1.114502904006942074e+00,-9.772273400602585203e-02,2.203038895727238988e-01,-3.455358911513081721e-01,4.643672971586457199e-01,2.808719013016708343e-01,-8.504347993575200881e-01,9.242924768735725216e-01,9.317238386212675083e-01
-9.940548592361189151e-01,-2.553418295980663943e-01,-2.910493795135080664e-01,1.978308500847535123e-01,6.729802129951653611e-02,-1.254090153836847632e-01,-7.518589907410493378e-01,3.625909720987774421e-01,8.919265641552613921e-01,-3.674630841586643548e-01,8.146407944701826720e-01,1.990858547107406396e-01,-6.627457125867873833e-01,5.086335194415245731e-01,3.119443521283529752e-01
