2.001219350130113359e-02,4.654350222526760367e-02,-1.073490751753815135e-02,3.595240601143703807e-02,1.582109544310775218e-02,-9.440286836291379713e-02,8.583760017106280282e-02,-8.914085053382914126e-02,-4.876983371860716537e-02,-2.752503409708745644e-02,-1.920941173392618218e-01,-1.520902487222703936e-01,6.191816056020742198e-02,-6.655927519257084923e-02,3.948274787148919190e-02
-1.502445759434931916e-01,-1.235553183256565685e-01,-1.956515608752358928e-02,-3.010746031643612985e-02,-1.394118736366325439e-01,2.278635566261154669e-02,-6.643125274160183169e-02,7.308401145690644751e-02,-1.471454441132077559e-02,-7.152464604873938481e-02,-2.978322201865493332e-02,3.485628614016744037e-02,1.203114591591250143e-01,-9.009251273015776718e-02,1.730135539248953969e-01
1.114747558240841534e-02,5.503080898511970159e-02,2.044584823471834178e-01,1.894453343602231499e-02,-5.493056582430225210e-03,-1.976376814915244418e-01,-1.870434135730766889e-01,8.182972584195149016e-03,-1.757862142414099577e-02,-1.333032437412425275e-01,8.056095702684852589e-02,-2.143426776187105920e-02,3.444413784337365531e-02,5.539871578872593988e-02,1.915522793968494827e-02
-1.065301765512854937e-01,1.677031507697518131e-01,6.801824398131216254e-02,-2.167466941213431753e-01,2.099649733640901114e-02,-1.934634396059902450e-01,7.006095801563859415e-02,-2.009944817363854830e-01,1.466542336191435092e-01,6.115555198543538157e-02,1.233213469633714504e-01,-2.996699631273509832e-03,8.127011545940772408e-02,-1.720768817282253560e-01,8.410557537203933176e-02
-1.339906009056473536e-02,8.810640965988673912e-02,-3.396378637566123404e-02,-1.158075903944989632e-01,-1.405862617599504261e-01,-1.342675498054801131e-01,-1.751337503841118859e-01,-3.610937026733825744e-02,1.944487491963984016e-01,-1.267396802468540307e-01,2.024451199875641483e-01,2.010659460329559944e-01,-7.540333568700763323e-02,-1.671350864747580267e-01,5.999678041726277250e-02
-4.510199377550482003e-02,9.504218245575962731e-02,-9.218673386767291256e-02,-2.096205613093163611e-01,-1.629941849570990253e-01,-2.686775693552377331e-01,-9.440343175649489049e-02,-1.866153171013975320e-01,1.141734152852748041e-01,-7.132700742783201764e-02,2.142712636005143501e-01,7.164551409010566640e-02,1.725800509789615911e-01,-1.774480709886397667e-01,2.731316517959758161e-01
5.916727691313213022e-02,1.563461349333808426e-01,1.229893402171310379e-01,-3.731888327478197209e-02,7.286926733517125332e-02,9.917451137931926342e-02,-1.113945397735786325e-01,5.738742534890760999e-02,1.360858274973772430e-01,4.952122843534609992e-02,7.521754611955237813e-02,-2.097998587725243003e-02,2.612861733982559109e-02,5.094864888178427670e-02,1.870473391613973191e-01
-1.189880775037863714e-01,-1.600797809178901299e-01,5.752159814995278647e-02,6.951249008040734367e-02,1.191715311943872813e-01,3.649586098799015993e-02,-1.377159485778937063e-02,9.494083266113298447e-02,-2.325551758389186180e-02,1.394123847342765565e-01,-8.841332876584166722e-03,-5.374120124280836602e-02,3.071636334323986708e-02,9.819742532489406095e-02,-4.732408470334131118e-02
-1.443937785208138369e-01,1.582059843231645446e-01,1.597878970344763505e-01,-3.107436219946550504e-01,-3.910262528904878132e-01,-1.425578266128298410e-01,-1.514535403126199969e-02,-3.549284778953474273e-01,3.791633087161122018e-01,-2.956850477263905930e-01,3.472027199249145824e-01,5.721799409225448996e-02,1.507079505311495204e-01,-3.117713283595622831e-01,2.804389333717018928e-01
-1.213227941220156314e-01,9.887623299574155311e-03,1.068882419793317495e-01,-7.975580151085359670e-02,-3.568303400564829531e-01,-1.075067338254055982e-01,-2.341200025954280617e-02,-2.023845809748206215e-01,1.460626497595748086e-01,-2.894105708554137735e-01,3.962555092591013572e-01,3.873036185960908595e-01,1.160886249218618105e-01,-1.623646173875828158e-01,9.107052460791748016e-02
-1.221457018727402366e-01,-2.175722695719630069e-03,7.126978066035233317e-02,-4.453999391245662409e-02,-1.091463641177716076e-01,3.631554535995334260e-02,1.643745949324215694e-01,-4.384592834735467209e-02,4.041240741429487360e-02,1.528766359621749893e-01,9.011080135240742695e-02,1.745523331237219811e-02,-4.904644558932118314e-02,8.680819318905882986e-02,-6.741413999908395238e-02
-1.074411459893675758e-01,9.981464115152844513e-03,6.323619927006501884e-02,1.066046425394662628e-01,7.571302782529122644e-02,2.213329158959872200e-01,-2.819698893657510141e-02,8.138448299687306431e-02,-2.861274663447134214e-01,2.119114326139092674e-01,-1.043601371642594172e-01,-1.064632965789419211e-01,-1.518785584290366641e-01,2.348601791239930681e-01,-1.156389719347863526e-01
7.409012485706540502e-03,-8.748678009617349982e-02,1.845252779069380400e-01,-3.149117719947592819e-01,-2.526553994615932663e-01,-1.255576752217382741e-01,-1.455287932846058285e-01,-2.149165016121322991e-01,1.653808643002598056e-01,-3.101759564300545780e-01,1.209420973659092041e-01,5.471055478600368727e-02,1.717155058817052271e-01,-2.078014880566769473e-01,1.284235996152508774e-01
-7.591750529877305809e-02,-8.928319336702648934e-02,-2.463463299573931675e-01,3.732125217942539042e-01,2.669903464264047899e-01,2.347450471065482686e-02,1.882917451037312839e-01,1.093620111946431717e-01,-1.910205317853365947e-01,1.072070131422011158e-01,-6.714304760174062692e-02,-7.749572796210506265e-02,-1.530435671508006135e-01,1.658750822982662521e-01,-9.519806804158832680e-02
-9.337387184310212696e-02,1.068055774933953928e-01,2.065779039820730134e-01,-1.767641838394097553e-01,-3.875200683021313985e-02,3.576357946677762023e-02,-7.961832167911893354e-02,-7.946479998051998728e-02,-3.827185768954054906e-02,7.709688855277962993e-02,1.932822792749032403e-01,1.303679486342550209e-01,1.074911536630556858e-01,3.919729689868128170e-02,2.540559005903612610e-01
-1.687885742336610317e-01,1.587912201309010229e-01,2.669127634956130479e-01,-2.005948345070595884e-01,-2.127647714877748675e-01,-2.614114997491772119e-01,-1.307581904110653448e-01,-3.530220826861927598e-03,2.975496132896154333e-01,-4.572900065043411511e-02,2.964376026929624319e-01,3.448842862669579956e-01,1.590530031340636197e-01,-3.263497349950976179e-01,1.049726391452368290e-01
-1.628428323830903302e-01,1.297906781094470829e-01,-1.681733710681007909e-01,-2.964237461099020199e-01,-7.417321367905332918e-02,-1.514612510902398068e-01,-1.069812160179518801e-01,-2.297453530126893073e-02,4.541114830981449191e-03,-9.523819774400282823e-02,2.513770278430425553e-01,2.688599539534720639e-01,1.435623598483959928e-01,2.913784552857905108e-02,1.050595497506587317e-02
2.124660338985949748e-01,1.285839095208690941e-01,-3.536131627731858296e-01,2.787502794764272207e-01,3.180096846321331383e-01,2.374902357875561809e-01,2.123816659110492056e-01,3.328938451277222987e-01,-2.345779131903080184e-01,2.955703407731485877e-01,-7.148839789765669417e-02,-3.738313165513665881e-01,-8.291775262327115426e-02,1.893057626913432490e-01,-2.690632580483369729e-01
1.199975403817321595e-01,-2.887429638022167080e-02,-4.316856665466172610e-03,-1.417472491150365520e-02,-1.676339194914004682e-01,6.015656664551499722e-02,-2.507458708697383326e-02,8.204808961067357187e-02,9.905111863003564221e-02,-9.031663017106533742e-02,-1.048933419075504941e-01,6.313297021758311131e-03,-7.951143024925420161e-03,-1.485671991438455575e-01,1.318885573234987729e-01
-6.423481619975621171e-02,-1.752504517183860189e-01,-1.842075235933129107e-01,1.758812578680491734e-01,-7.353347566917366185e-02,5.043141704464188663e-02,-1.009786118882349953e-01,1.800039067323156924e-02,1.552294632708876576e-01,-2.938587335986948476e-02,1.171082635213469558e-01,8.898156780674736088e-02,-1.387650650716936718e-01,-1.959407100758046513e-02,-9.691707820124867423e-02
1.019974899888283770e-01,-5.840922147327907987e-02,-2.978209097750557713e-02,1.485413842439484156e-01,1.082718085509643269e-01,-5.747725741771627511e-02,2.792006211762726800e-03,-6.015470612593988575e-02,5.499564715372783075e-02,6.858763743806121915e-02,-1.878341859096854458e-02,7.167176119520349276e-02,-1.326894773273529504e-01,6.813013874559514793e-02,-4.415463633306248442e-02
1.353326543429582141e-01,2.046848060230809993e-02,-1.801894664425656989e-01,1.654042670332511455e-01,2.514636356363124103e-01,1.531267506687982449e-01,1.825937510413377929e-01,1.311759504874341065e-01,-2.451858886604931786e-01,1.101545100989790305e-01,-3.428728499937470642e-01,-2.406156917331112310e-01,-1.042229837691365651e-01,1.674301254856685184e-01,-3.333626630544858638e-01
5.891158825341680867e-05,9.083770444932541890e-03,2.903815893250812907e-01,-4.959368043693710981e-01,-2.975149921751190640e-01,-1.108873979458983861e-01,-1.540963610654558502e-01,-3.940394093180552004e-01,3.521542457017957650e-01,-1.632337661086196712e-01,3.769838201825019830e-01,4.539420872334328227e-01,8.279501721603263475e-02,-1.674741426101698516e-01,4.022596676029903673e-01
-2.391517469864668788e-01,-1.801112909099640003e-01,3.854461177247018866e-01,-6.235037536715156703e-01,-4.862951746495980387e-01,-3.988739513233908185e-01,-2.326131944432346943e-01,-3.404783153791546835e-01,4.013703207775891624e-01,-5.766679777031963328e-01,3.063313685791244079e-01,4.878010163165805158e-01,2.329575745444768808e-01,-3.383981579106596360e-01,4.733826737283488573e-01
-1.065197224588388834e-03,-1.145298504500418812e-01,1.289366360963535227e-02,-4.401532853438756554e-01,-2.318113706798272389e-01,-3.440264156284795760e-01,-1.325555934998657315e-01,-3.862523140748379546e-01,1.115242656543353750e-01,-4.407562101821937417e-01,3.393733283668123879e-01,1.959387545396017172e-01,1.655246306020837221e-01,-3.735579739787887044e-01,3.317257284588903121e-01
8.159360124682324411e-02,-1.371066214660231208e-01,2.815046794107944894e-01,-3.021628325356495171e-01,-2.971784609787806453e-01,-2.493866861022216719e-01,-1.947733715529910148e-01,-3.760500903278715112e-01,3.655667252362326813e-01,-2.818689300155333144e-01,1.831492456955112202e-01,2.381174796574564156e-01,3.082681195778724237e-01,-3.036409570438211580e-01,3.198071898351210196e-01
-9.967904269932413575e-02,-4.903540120538879728e-03,1.287121281336302825e-01,-1.665127921947370804e-01,-1.265066411093365151e-01,-2.499570245674846980e-01,-1.908437041575625215e-01,-1.799993255221943311e-01,2.460211349499114020e-01,-3.565172308815453550e-01,3.072503153286177957e-01,1.774995847278126038e-01,2.584681748931310641e-01,-3.673377230042655928e-01,2.921383479539750305e-01
-7.897340284416692890e-02,-4.632916614728087301e-02,4.620667749909447564e-02,-1.120006138002297954e-03,3.719430387792876935e-02,-2.332022368123017747e-02,-8.519523236972957603e-02,-1.941175704169806893e-01,5.781800400968409304e-02,6.943939915152899656e-02,-1.302075835226197964e-01,9.032340754996107113e-02,-1.340237050421511367e-01,-8.365317025529202255e-02,-9.965742129539503780e-02
-1.456414617795948330e-01,6.314534373752488106e-02,1.532075350702608862e-01,-3.785477571138707864e-01,-1.068104521634563181e-01,-2.866258970203046652e-01,-9.320959187417171554e-02,-1.145282075267209793e-01,3.434445488520236345e-01,-3.419105040748292579e-01,1.391944886082832622e-01,2.509919483114324001e-01,1.022772673670390431e-01,-2.144153188307155178e-01,1.043964949229668482e-01
-1.995538767153009208e-01,-1.150401624519385158e-01,2.075551465536955020e-01,-2.416340761280955651e-01,-3.715293703695887184e-01,-3.220058379265880455e-01,4.925270199327614132e-03,-1.632195188380629325e-01,1.671605413149969688e-01,-3.206502914734537524e-01,2.656251481090643463e-01,5.525382238304796245e-02,3.338511979317917988e-01,-3.622475414040642883e-01,3.026030498956963632e-01
7.664230558485850275e-02,4.831087896703027684e-02,1.979255930388710560e-01,-3.518518102457504071e-01,-2.904693724314942327e-01,-1.185773359511322345e-01,-2.669175749064800138e-02,-2.138342317935905124e-01,1.211309875315543239e-01,-4.080270269007648110e-01,2.641526073586466516e-01,2.969912428318353670e-01,3.162446295390742845e-01,-3.441845165105341109e-01,3.034117682030212371e-01
-7.416639644896184935e-02,3.374044251568455305e-02,4.805286621302795602e-02,-5.807803645833142098e-02,-1.641155626091492584e-02,-2.024572672778914006e-01,1.943638763850955020e-02,-1.042690489241325817e-03,-5.846288999610978893e-02,2.824771478654887480e-02,3.881544360813675432e-02,3.977016211800540185e-02,7.440363019369039543e-02,7.708948597087045274e-02,1.716619389476175261e-01
