-1.144897507679490528e-01,-3.685750017620195718e-02,5.397199749007485642e-02,5.072349120560762370e-02,-1.389404810550067815e-01,-5.297349473189651853e-02,-1.164357303285995654e-01,3.172991643643154752e-02,7.653951295944983781e-03,-5.619726838080577741e-02,-9.295252607142697604e-03,-1.620753066197134773e-01,6.424967871872176717e-02,5.151207316834659211e-02,6.996822342905670289e-02
8.124124083675136887e-02,1.306500328529715260e-01,9.273243824771489063e-02,9.618985124836169909e-02,7.902508804491865935e-02,-6.331266347354855273e-02,-1.614234175153738682e-01,7.642393731246037436e-02,1.402310240216974972e-02,9.998605111144795443e-02,1.107789646756822954e-01,1.037291823397506058e-01,-1.062531233808467757e-01,1.076167046068265964e-01,6.613811954126690151e-02
2.829480731641895730e-01,2.218038892070544332e-01,2.728699380355516513e-01,-1.480082975358858466e-01,3.673662177894324588e-01,4.671616073260846380e-01,1.216455813771283485e-02,-2.235023038791091043e-01,4.364786677301017437e-01,1.840149819634452899e-01,-1.921955052372846251e-01,2.074096569293057690e-01,-1.718426209626714579e-02,-2.933894998096875373e-01,-2.153329583912282352e-01
1.256187189384202763e-01,2.144682546495141340e-01,1.529730538566531906e-01,2.485100179158728981e-02,1.384324688182770879e-01,1.801821711348928212e-01,-1.206097079940312081e-02,-1.674050306965760571e-01,2.103491050114447147e-01,1.192904616670152490e-01,9.884830624535431709e-02,1.257926609740809276e-01,-4.690935331431826671e-02,-9.409046984667347735e-02,-1.543907151222229102e-01
4.265456167405239779e-02,3.499856469896828748e-01,2.796099947170960776e-01,-1.160433960063620984e-01,3.520488923735201614e-01,4.348594948324374654e-01,5.980992491071032702e-02,-3.578991307009766754e-01,4.118433001258902659e-01,2.120699169591291622e-01,-8.476959679006754178e-02,1.409989393471185459e-01,-1.954648177851296686e-01,-6.627181371068087412e-02,-3.580243208976330305e-01
-1.887792347292881895e-02,9.069455175842643102e-02,2.062706225976254637e-01,-1.584180124659072611e-02,4.599678189515261084e-01,3.151835310225592490e-01,-1.245616727002357843e-01,-4.648904575832275010e-01,1.695443827040598872e-01,-3.391561423980875983e-03,-2.553245826770859095e-01,1.621830932689031501e-01,-2.540683872577111369e-01,-6.381998661855397582e-03,-1.884587363861866816e-01
-9.778117539646574707e-02,1.246846642455357174e-01,-1.183919827899937993e-01,-1.604950502258821743e-01,-8.707684977621610312e-02,-2.679794101244017956e-02,1.440577982281951996e-01,-6.467463357284443382e-02,1.275123683240780570e-01,1.088324194872731243e-01,-4.760628901753338055e-02,-1.045870189996626620e-01,-1.249025386880032867e-01,-1.507835831618914990e-01,-2.708209186158679668e-03
1.383030740149109872e-01,5.295147709886510734e-02,-7.728663103465659157e-02,2.564081324199581763e-02,-8.122070833323730144e-02,3.096331177506331245e-02,8.683152858989526268e-02,-4.592753056938309042e-02,-1.328152504673536238e-01,-8.543069801329432333e-02,1.433111779391937346e-01,-1.764590260828845843e-03,6.437374466954408347e-02,9.207791116118094199e-03,1.529026495673075636e-01
2.367269644635112413e-01,6.946389791283134885e-02,1.927328056974945969e-01,-1.470510090514527690e-01,4.670130544596136357e-02,2.700898578545743445e-01,-1.036825092937520149e-01,-8.696720371693456020e-02,5.744345070503135975e-02,1.054282595353553953e-01,-9.303261088948319366e-03,-1.224195831764809950e-02,-1.710123066747941678e-01,-2.196188149700789849e-01,-1.904598181810437940e-01
6.637405085301656404e-02,2.794736730735863928e-01,6.256547873652018588e-02,-2.169615001719299441e-01,1.742558335281618742e-01,1.405763237970870383e-01,-1.559051719833611793e-01,-1.643124857584352394e-01,2.509981461172489103e-01,2.167690907793070054e-01,-1.720151752480220952e-01,1.943172384098232341e-01,-1.552105712015939276e-01,-2.922737635026468120e-02,-3.008990367067765348e-01
-6.254746111064633449e-03,1.400781474250381020e-01,2.423666948187567366e-02,-9.426812440841329799e-02,-3.397576294335783592e-02,6.014115593845805602e-02,4.365154040932931606e-02,2.080431838790690324e-02,-2.357350588334736902e-02,6.123439333883808067e-02,-1.948856837363673045e-01,8.960899214452323902e-02,-7.199148113838968466e-02,-1.198047303864977348e-01,-4.680475810290840588e-02
6.590092327823339480e-02,-1.631043073592975401e-01,-7.740858381909304642e-02,2.234529724360288447e-02,-1.164384559502234715e-04,-2.755758106617876568e-01,1.111099722945760662e-02,3.011188924345462037e-01,-5.890173924035669445e-02,-1.625884589333669583e-01,-4.670200080247332436e-02,-2.415946389529269878e-01,-7.436824755214745120e-02,2.246258175081007891e-01,6.885618742469745701e-02
2.078605337433252556e-02,1.663551997730507437e-01,4.146548512693896960e-02,-2.863313841421114003e-01,4.445539126780073125e-01,4.688515633117976145e-01,-6.535526763737238565e-02,-4.699766047903488064e-01,2.228562842142428335e-01,-6.193534557496845755e-02,-2.372124582500445555e-02,8.523843133585662368e-02,-2.213539858006084438e-01,-2.201806649805717886e-01,-1.697854886241766115e-01
-1.094904392508500440e-01,3.800412658981785347e-02,-3.321040757285832756e-02,-1.929499465861214125e-01,6.673111855366524459e-02,1.002900118918709366e-01,-4.278635939330813209e-02,-6.285618413547031103e-02,1.096059375843128070e-01,-1.316662729584411849e-02,8.623514411294032345e-02,1.893266353813473080e-01,-1.426640324156312756e-01,-1.484958414995834752e-01,-2.040407688758420490e-01
1.133600029383829838e-01,9.980035448770905801e-03,2.760821529613765798e-02,-6.125244377180369404e-02,3.057979685131318459e-01,2.596232825264570554e-01,-4.907251065702165210e-02,-7.377021010077058905e-02,3.264666618894253025e-01,-2.113267747220082260e-02,9.410047146385946970e-02,7.250291545836477780e-02,-1.793055744790194306e-01,-3.491878205174357708e-02,-1.998406340793988101e-01
1.317694207768153325e-01,2.674652722719275677e-01,3.007576769156022345e-01,-1.591547032701789710e-01,3.557880024405020714e-01,9.459989388885411965e-02,-8.967871729952420212e-02,-3.987723353320229980e-01,2.882934242579638928e-01,-7.339893507014204344e-02,-8.090017581316819029e-02,2.446590613739768605e-01,4.362728759074772228e-02,-2.235828579392228899e-01,-1.869877318548275325e-01
7.569078969462960348e-03,1.466231853322832457e-01,-1.642795736355917233e-02,7.387499873379368975e-02,-8.191650095443179375e-03,1.153310752741844025e-01,-9.451749263751732522e-02,-3.674167506006830591e-02,-4.217499188404451316e-02,-1.122102595605728864e-01,-1.526667546010960774e-01,1.100191941370144560e-01,-7.409361633270641900e-02,-2.173289057326174487e-02,-1.153720687548575458e-01
-1.554801206992136552e-02,3.954167560638380957e-02,7.065348354645165085e-02,-8.161807534333415104e-02,-1.706846074803228600e-02,-2.411087789537217363e-01,8.457283761548317624e-02,5.008833592364332621e-02,-1.913274121571977293e-01,6.612806391210993007e-02,-1.333505150196799462e-03,3.941822323278068585e-02,-9.512732772500616385e-02,6.967025312270780368e-02,-1.700057139703401235e-02
1.050829154708329827e-02,-1.974772859949721904e-01,1.253326687662419982e-02,1.015200572591654637e-01,6.412288283163353197e-02,3.731709172660484936e-02,-8.646575218610619284e-02,2.125949269195238356e-01,-9.092496553022043349e-02,3.571930002132363974e-02,-1.638667028682813109e-01,8.154603252942554947e-02,-1.077763215208276011e-02,5.900663744589638299e-02,2.728950584709013624e-02
8.498693208224161744e-02,1.240303985380163121e-01,-2.504210415919779983e-02,1.064614550427653433e-01,-3.048799804654966569e-02,-1.008502230843654618e-01,-4.545586604563328637e-02,1.051029328759808985e-02,5.733909526971714410e-02,2.147841294939976942e-02,9.028257928069079175e-02,-1.165114066462550127e-02,3.145077944470692916e-02,1.288084865470671969e-01,1.761710567147424869e-02
7.317029038756643795e-03,-4.750485825703387038e-02,-9.970971567157782545e-02,7.529519811480327174e-02,-1.675388938657013660e-01,3.697127957969520429e-02,-1.333368354584654469e-01,1.389156017664363862e-01,-1.079560574632869308e-01,7.583553074195030497e-02,-5.229522597895128189e-02,-1.194514500301130655e-01,-5.212492954697905967e-02,-1.009802800965392267e-01,1.324523760196357203e-01
-1.803540706637397212e-03,-2.398563969868119650e-01,2.108388629192899273e-03,1.353366820176452878e-01,-3.174789691470141229e-01,-2.059423373355272757e-01,1.060131794480220213e-01,1.648715022683023418e-02,-1.353406390142863069e-01,-1.545976546680739583e-01,1.528469306710194264e-01,9.739821652320838907e-02,1.945818007372898673e-01,1.672307929797818005e-01,1.754575159813769047e-01
2.386462433801475602e-01,1.704780839483736044e-01,1.896041725153561341e-01,4.748648391637037836e-02,4.030075533767918938e-01,4.013999851211162984e-01,-7.799464865734420660e-02,-2.282413173843023946e-01,4.259977193841017473e-01,1.885352437045171581e-01,-3.216067618675407663e-02,1.914576697610054501e-01,-1.941144667222612641e-01,-4.187486997667107247e-02,-4.259079005229916004e-01
1.043318107443832188e-01,9.270153866887319294e-02,3.392591067957418938e-01,-2.319692944941982859e-01,4.749437331662234585e-01,3.762924077788312172e-01,-2.011559179975733885e-02,-4.552842487870864541e-01,4.007736447378732469e-01,1.564395995469280709e-01,-2.772307660566710741e-01,5.016608701091009731e-02,-1.040196050902784108e-01,-2.946977824165569748e-01,-3.221846830283820462e-01
3.395477075881021545e-01,2.143201445803386840e-01,3.281249020791882076e-01,-2.276540081505887547e-01,2.304790626923764740e-01,2.849809568986019781e-01,6.814039491780150490e-03,-2.267897751037647736e-01,2.387667019906502541e-01,-2.857532671230487292e-02,-6.397622669444527621e-02,9.892407090170424189e-02,-2.382433108612039274e-01,-7.090737949292638675e-02,-2.384159822662604289e-01
3.220524917597408221e-01,2.041142201495018127e-01,3.790375776952926712e-01,-2.628016767502488471e-01,2.698447601385108863e-01,4.650358000992960705e-01,-3.452468003018909111e-03,-4.753631407674914766e-01,3.873472276529840719e-01,2.546441600319740983e-01,-2.820343414579261007e-02,2.310680754506582169e-01,6.565519051524054683e-02,-4.363908318648811874e-02,-3.859844105674252179e-01
1.232551706992860985e-01,1.555374959931228873e-01,2.156214136716639029e-01,-5.364075980399109905e-02,7.870937292355492665e-02,1.015290766727208749e-01,1.531880579165216805e-01,-1.784593733174306696e-01,1.998763014603897048e-01,1.475460533394870322e-01,-2.221705983990462652e-01,1.229574065783206605e-01,-7.735719641698476923e-02,-1.591150826406462493e-01,-1.950686645409782372e-01
-1.516243400078343476e-02,1.661771032846332263e-01,2.113056933500420398e-01,9.214238675666898415e-02,1.938829424433699544e-01,9.364721071599135804e-02,9.410631643860016549e-02,-2.758960364068552829e-01,4.145142882201976325e-02,6.067507991448585399e-05,-1.412667398009409547e-01,1.073678404928326835e-01,-9.893935524071935383e-02,-1.344043189822347051e-01,-7.027967479361635350e-02
2.849006406283122184e-01,2.101197789208998079e-01,1.167539700939881214e-01,-5.190296285290710993e-02,3.043090803443384007e-01,8.866206360077324988e-02,-1.294582476400479576e-01,-1.186335143439180007e-01,1.095997289784663431e-01,2.420900117983423167e-02,-2.289720933831759092e-02,5.590766370890695031e-02,8.962646813124718059e-02,7.945737982219412687e-02,-2.000075583948658087e-01
-2.115957279704204497e-02,1.050538808368639138e-01,1.653496093600611838e-01,-1.191189376069814870e-01,2.907991187170464453e-01,4.026845394009068158e-01,-1.397613950746113276e-01,-1.069140355651817392e-01,4.247772646321369971e-01,1.732839840855510127e-01,-1.000927928596292565e-01,3.505613346473873126e-01,-1.086114018012872273e-01,-1.372932575385195642e-01,-3.815998617133183057e-02
-3.941616515610115584e-03,1.365858663908995629e-01,6.663206630735485358e-02,-1.765555183235766393e-02,2.722192866768716746e-01,8.366951709971322260e-02,-6.824976276964489497e-02,-3.147116845505165683e-01,2.764666225007592071e-01,-7.996946589872296410e-03,5.413837607735441648e-02,2.326348720259861780e-01,-6.185681981372079946e-02,-2.004191367887644681e-01,-1.122105405034309195e-01
-1.220857389453698129e-02,-7.193334376634258343e-02,1.977948454579962767e-02,-8.454333755755484570e-02,-6.149061847139739023e-02,1.345101129925219685e-01,1.225655260151673181e-03,2.703612919053582919e-02,1.385285575031452131e-02,2.818198528415967116e-02,3.024978575802535208e-02,1.704936445569644674e-02,-5.183628018114454228e-02,-5.599761375882574173e-03,-3.604599780170279072e-02
