2.385586353803370863e-01,1.162776950484497307e-01,-2.330513291177084279e-01,-7.871863156898881164e-02,-9.940384648134585610e-02,5.481228833774298009e-02,2.380222416381711226e-01,-1.028259777270074532e-01,-1.778418235404113090e-01,-2.593241362379980486e-01,1.507386856248213725e-01,-1.083132454763788832e-01,-8.561871989047901976e-02,-1.647728979680229341e-02,-7.844220404456044016e-02
-3.857705303812488523e-02,1.133726783999196852e-01,3.450180391960229465e-02,1.016660316609334785e-01,4.498667251552160642e-03,-8.250117117095912000e-02,-7.432808250657715887e-02,2.747071185618994715e-02,-2.602065581932948637e-03,1.593606824203852856e-01,7.373243400397834491e-02,1.270650122363184142e-01,-1.105346284884056209e-02,-6.445744409617150394e-02,-1.098876636981348937e-01
-2.112420117486182025e-01,-1.464391092173873421e-01,4.621097657161135630e-02,1.621765590637787025e-01,-1.899566006170216037e-01,1.485792681773588919e-01,-2.537344862942418344e-01,-5.263089918299456577e-02,6.182432187106626058e-03,1.858817207356268375e-01,-9.495439126104839034e-02,2.068780059425856244e-01,5.280556431805172313e-02,1.802640183236188243e-01,-2.581366431480813795e-01
-3.449333418233505588e-01,-2.193981484676851557e-01,1.797713295327720839e-01,3.443330074186003453e-01,-3.383857874470885124e-02,-1.283093613527596473e-03,-4.000780437094910713e-01,-1.710558266204712519e-01,2.361411021987098180e-01,2.759503902452447588e-01,-1.207055993394743759e-01,1.650124586615401012e-01,1.362919763802768192e-01,3.856937937542758155e-01,-1.858562165634254082e-01
-2.159754377505850864e-01,-8.896674032691712433e-03,1.677314875910380365e-01,3.756090912325071862e-02,-9.413890506626296228e-02,-2.566353786707175049e-03,3.446329831179675146e-02,-1.252949309152864565e-01,5.664474048717266924e-02,1.751518378872615189e-01,1.134608743978267609e-01,2.752913441312819232e-01,2.263567868194303057e-01,6.107546119172359289e-02,-1.949300541318690341e-03
-7.260530573346442307e-02,-2.990405564607993560e-01,2.488330023005563274e-01,1.768547092127954190e-01,-2.181491153185704801e-01,4.738352117429796978e-02,-1.999641328316316968e-01,3.082553506883309227e-03,4.935901683642685694e-02,2.132645832050551193e-01,-3.744575707058644953e-02,2.890291176361888814e-01,9.859658025975256979e-02,2.400387352844721156e-02,-2.355222747119383453e-01
-2.234317878342557684e-01,-8.782791466071969422e-02,5.294628941104884134e-02,9.184371266427202030e-02,1.285310035352842939e-01,1.797776238461357146e-01,-1.144960202366437363e-01,1.679014497795008054e-01,-4.084318485922981690e-02,2.547017464341617132e-01,8.735467059922545630e-02,1.371627689894929503e-01,2.813959130909913231e-01,2.438583326729006073e-01,4.087435722153794082e-02
7.134957105030388658e-02,1.034131615330173143e-01,-8.720617825875681683e-02,-1.177369028796223516e-01,-2.470688330677548589e-02,9.441338031180987467e-02,9.933385054154156291e-02,1.359233984920140692e-01,-4.819809590924695186e-02,-7.829963506576236021e-02,7.196072738475435548e-02,-5.272421075637784976e-02,-1.028332376158881123e-01,-1.490749254573648097e-01,-3.870351823050854206e-02
-1.051356505368633010e-01,-1.366135595411790693e-01,9.831209625769765648e-02,1.139271678670565335e-01,-1.236879511970093715e-01,2.893419472642501100e-01,-2.472036933189284413e-01,-1.685896561852197328e-01,1.824242774015157054e-02,1.997475649352288829e-01,-1.158630118231375600e-01,3.137317820322511053e-01,3.376900102533527126e-01,3.694391251048957936e-01,-6.905613976962231282e-02
-3.280844723543873132e-01,-3.245201868325895411e-01,3.048267552585615658e-01,2.150525855234629580e-01,-8.167614767636910411e-02,-2.009625642406680235e-02,-3.564665344863990892e-01,-9.663158443726571623e-02,1.806857383664697003e-01,2.825028789439102961e-01,-2.136114981754387299e-01,1.149380166521355023e-01,3.432770750444452679e-01,1.602322787506399171e-01,-1.032088682914642369e-01
6.803521686480301645e-02,5.160627942177939409e-02,1.539945738278476793e-03,6.223121088577004967e-02,-9.353696002081602137e-03,3.022519454240930187e-02,-9.932709558768820779e-02,1.136663976875443433e-01,1.476877467502138164e-01,1.822289433041876239e-01,7.642872897610714089e-02,1.914513740409423403e-01,-8.671911036648535798e-02,-1.249655292292909704e-02,-8.868365478000904065e-03
1.557299785606016118e-01,-6.113456206571971779e-02,1.224971102781746563e-01,9.353858712976792500e-02,-8.776947995934229751e-02,7.086361215562646254e-02,1.078811635324150760e-02,-9.357776468167849915e-02,4.232477159457489341e-02,-7.530965917510977492e-02,1.978571000102216093e-01,-1.194076911149195841e-01,-1.666635360932442189e-01,-1.429142102251922397e-01,1.154203796040448593e-01
-1.740775760666952721e-01,-2.998459854549813119e-01,2.648831486935449009e-01,2.914245523148397132e-01,-2.536908035572924547e-01,-5.463870482100625925e-02,-3.437177048847197547e-01,4.675052051946770176e-02,2.438904766297405324e-01,5.448333484721783193e-02,-2.507894804241518893e-01,1.469625779427301271e-01,8.180086344517514818e-02,2.426196749242572059e-01,-3.480427701229715093e-02
1.116125474723418526e-01,1.996374724157668479e-01,-1.202143653447242944e-01,-1.039704442975682569e-01,2.227736967863349071e-01,-1.154852217560769223e-01,2.135469227848485474e-01,3.895171056897865636e-02,-7.945953147560087804e-02,-6.541909265523984662e-02,7.303213777917043348e-02,-2.413968570598772623e-01,-2.718194865407995708e-01,-2.416432431898248023e-01,1.111756138157855844e-01
-2.601228134193382946e-01,-1.240796490252207285e-01,1.425620821954417805e-01,8.682104715333165135e-02,-5.059543754565744289e-02,2.095303562945775300e-01,-3.027931800780316318e-01,3.959980979824821723e-02,1.453661158526006469e-01,9.244397035381445027e-02,-5.170857824151437604e-02,3.042010956123273879e-01,2.979933676024582034e-01,1.372716465005692221e-01,-6.230261585638061789e-02
-5.797743171031158327e-02,-6.722796391946805894e-02,3.168485306295353854e-01,1.999791088626063085e-01,5.974294485808805816e-02,1.558562974400134471e-01,-3.493579286223010838e-01,1.356674706067428349e-01,2.416597684687215586e-01,2.778335106583343372e-01,-2.216651671532527124e-01,3.738805674414683589e-01,1.524928764277053983e-01,2.719961948005704122e-01,-8.163847193940479419e-02
9.282128778418545501e-02,-1.525666969898650804e-01,1.767464747157281302e-01,-3.895204982779149755e-02,-8.882079228558802109e-02,9.835315928804791441e-02,-1.358082072094263064e-02,-1.382778825794293148e-02,-8.928213456627318370e-03,2.031869087634605858e-02,1.575347853484453942e-01,-6.852375914077070418e-02,1.075600943937078113e-01,-1.745993327851176266e-02,-1.126615151826705456e-02
1.756736360837802269e-01,3.800264630642817276e-01,-5.306351935048808643e-02,5.561972977142564528e-02,-2.743925251562087317e-02,-2.046848907856574085e-01,2.442541143425147054e-01,-1.143635538000687402e-01,-1.931331504800510093e-02,-2.797430550185779907e-01,2.083674626271788954e-01,-2.235129286716083796e-01,-3.225567312475843829e-01,-2.287430451178508808e-02,-5.658510901492094097e-02
-7.588980791683186400e-02,-2.542751354858911045e-02,1.261776367085856165e-01,-1.104816245277807502e-01,-6.964030619791913498e-03,-8.368493561928080915e-02,1.034520712987414687e-01,-2.681564414797375784e-02,5.017397956641756612e-02,1.182121013039195423e-01,-1.654297766502711153e-01,3.779836567857049190e-02,9.152560536401209423e-02,-1.022957193697656142e-01,-1.161371057124927220e-01
1.560803458531437836e-02,4.319223482740650044e-03,-9.677971555400791126e-02,-1.252343253631024202e-02,9.537444620564737574e-02,3.019213798327268980e-02,-4.109095363535503892e-02,-1.155379160108669680e-02,1.552213590354613038e-01,1.470497957515828347e-01,-5.189742768403136225e-02,-1.747617711946907381e-03,7.503351943791584933e-02,1.228976353074967276e-01,5.838138189857846466e-02
1.860267343333214807e-01,-1.310084724651290784e-02,9.989402816741062285e-02,6.033375361287205557e-02,1.284983411866618408e-01,1.257103023384165998e-02,1.958665671783294537e-01,1.029050636525016826e-01,-7.752648509434020840e-02,-5.232492433549068567e-02,1.374328065720396841e-01,-1.116623343511248118e-01,-7.092923781560435403e-02,-1.332937728738773642e-01,1.894255712127203839e-01
4.866892107554442182e-02,1.092308010233612597e-01,-9.770304882774609109e-03,-2.715661215065441336e-01,2.789825750788754166e-01,-1.013569983082253378e-01,2.161543979678682004e-01,5.504806662077008778e-02,-1.256958374507810283e-01,-2.180014519819673535e-01,2.534709656228523178e-01,-1.993512934495517419e-01,-2.610473580487449041e-01,-1.874649013086823468e-01,4.482834603125086803e-02
-1.611451835016149414e-01,-2.392405388797130550e-01,2.986150732047521683e-01,6.470062716498205246e-02,-5.891934378358398144e-02,1.061095313059738227e-01,-3.751525068912576755e-01,-7.487434026272264675e-02,2.844340546604826048e-01,2.598910976017353436e-01,-2.668650976350612769e-01,1.279748635473320628e-01,3.172692295136359530e-01,4.396782879086722495e-01,-2.568251947681930991e-01
-3.177622813295812865e-01,-1.436235682638464795e-01,8.841823314550149859e-02,2.850444597566125782e-01,-1.899294121007896463e-01,1.513886199303995095e-01,-2.485981990759161264e-01,1.210275717547020374e-01,1.578361687574785510e-01,3.400916664947423174e-01,-1.892136816527388021e-01,4.522416911954769692e-01,3.385686592744857615e-01,3.227359377796614193e-01,-1.189534295058427282e-01
-1.707065261860487571e-01,-4.321288284316724404e-01,1.677574153080395591e-01,3.986321560964662392e-01,-1.559480264712580222e-01,1.941280206611808723e-01,-2.487167245955499428e-01,-1.840187837586425290e-02,3.176519720824671489e-01,2.722422806402978734e-01,-7.042717670619838555e-02,3.507775268276825953e-01,3.442328002378701735e-01,1.881916270751559372e-01,-8.155531698745040192e-02
-2.155217181830834383e-01,-2.691947644615022561e-01,1.015457031945650734e-01,4.032016528033887659e-01,-2.500817937319546602e-01,2.036136422111679278e-01,-4.644375175167883008e-01,-3.821410501839536678e-02,3.169710351030977091e-01,3.274963358215796094e-01,-2.290736397316334994e-01,2.985583887568584172e-01,4.056680232513360518e-01,1.465538158972845006e-01,-1.225470871949276008e-01
-3.543004323742625084e-01,-2.961420767472554560e-01,2.430706288873364096e-01,2.105338152526938511e-01,-2.390787418760782490e-01,1.997812605235607386e-01,-3.796657738274830662e-01,-1.048524751163069368e-01,2.623323309026831876e-02,2.304431126503215521e-01,-2.607049822221709778e-01,2.893947409048097108e-01,1.320089227467718118e-01,9.989750200388189394e-02,-7.493514784633552306e-02
1.583711109601900202e-01,-6.954275585109703783e-02,1.075195489655747377e-01,-1.379341909748592609e-01,1.554830062915070754e-01,-7.242813135479810038e-02,2.818068696293084610e-02,7.560467114081464990e-02,-4.988661033469051626e-02,-1.348168603169659641e-01,1.599928229751441389e-01,-2.306506719323023202e-01,-7.195660152698009349e-02,-2.272438488703900500e-02,-6.477240989346344513e-02
-4.988409147442394304e-02,-3.408922706204242647e-01,-2.336705073656593704e-02,5.726549279808736126e-02,-2.112845760530437378e-01,5.670430996092938776e-03,-1.249654926436440522e-01,-9.225950331218735201e-02,1.375465414416691956e-01,1.081549051541498413e-01,1.889940702745534357e-02,3.156021659266142754e-01,2.690785441539152445e-01,8.905139328460955767e-03,-3.653619362734454590e-02
-1.951943319816472344e-01,-3.389830587458088629e-01,2.915505495092631794e-01,3.463233674566841280e-01,-5.039265220156936842e-02,1.510644293765391055e-01,-3.660970111291608764e-01,3.899562341604487919e-02,9.523296345531760687e-02,1.940973348746017069e-01,-1.896247698280481842e-01,2.015898288016486350e-01,3.197440283770150993e-01,4.008232101599588093e-01,-1.103629055538426357e-02
-2.075976688487788102e-01,-1.053629420890389301e-01,1.705357681356619304e-01,2.375638937200852119e-01,-1.304879615902536649e-01,1.501155606200377246e-01,-2.841377347666328990e-01,-1.241662547479357587e-01,1.872141547557737706e-01,7.651245302065300125e-02,-7.767984221959423063e-02,7.596665371718248905e-02,2.278706757579643527e-01,2.616226667268564676e-01,-2.666972051584493020e-01
6.379546576890295084e-02,1.237769622257444829e-01,-9.912021978966543967e-02,-1.487487584221256487e-01,1.168716265443042190e-01,-5.731833250055605455e-02,1.161656240791307804e-01,8.602397851643986404e-02,5.824175088151558460e-02,-9.527877354010548874e-03,4.715217819889240547e-02,1.106518639678762544e-01,-1.534924368286287866e-01,6.697618424517701174e-02,-6.533771309911730329e-02
